<?xml version="1.0"?>
<opencv_storage>
<cascade>
  <stageType>BOOST</stageType>
  <featureType>HAAR</featureType>
  <height>24</height>
  <width>24</width>
  <stageParams>
    <boostType>GAB</boostType>
    <minHitRate>9.9500000476837158e-01</minHitRate>
    <maxFalseAlarm>5.0000000000000000e-01</maxFalseAlarm>
    <weightTrimRate>9.4999999999999996e-01</weightTrimRate>
    <maxDepth>1</maxDepth>
    <maxWeakCount>100</maxWeakCount></stageParams>
  <featureParams>
    <maxCatCount>0</maxCatCount>
    <featSize>1</featSize>
    <mode>BASIC</mode></featureParams>
  <stageNum>2</stageNum>
  <stages>
    <!-- stage 0 -->
    <_>
      <maxWeakCount>2</maxWeakCount>
      <stageThreshold>-2.2065873444080353e-01</stageThreshold>
      <weakClassifiers>
        <_>
          <internalNodes>
            0 -1 1 4.5163385570049286e-02</internalNodes>
          <leafValues>
            -9.7916668653488159e-01 8.7012988328933716e-01</leafValues></_>
        <_>
          <internalNodes>
            0 -1 3 -7.6584920287132263e-02</internalNodes>
          <leafValues>
            7.5850796699523926e-01 -1.</leafValues></_></weakClassifiers></_>
    <!-- stage 1 -->
    <_>
      <maxWeakCount>2</maxWeakCount>
      <stageThreshold>-4.9459166824817657e-02</stageThreshold>
      <weakClassifiers>
        <_>
          <internalNodes>
            0 -1 2 8.9714281260967255e-02</internalNodes>
          <leafValues>
            -7.6146787405014038e-01 8.7500000000000000e-01</leafValues></_>
        <_>
          <internalNodes>
            0 -1 0 2.1194823086261749e-01</internalNodes>
          <leafValues>
            -8.9676773548126221e-01 7.1200871467590332e-01</leafValues></_></weakClassifiers></_></stages>
  <features>
    <_>
      <rects>
        <_>
          0 1 24 10 -1.</_>
        <_>
          8 1 8 10 3.</_></rects>
      <tilted>0</tilted></_>
    <_>
      <rects>
        <_>
          0 7 6 13 -1.</_>
        <_>
          3 7 3 13 2.</_></rects>
      <tilted>0</tilted></_>
    <_>
      <rects>
        <_>
          5 0 12 8 -1.</_>
        <_>
          5 4 12 4 2.</_></rects>
      <tilted>0</tilted></_>
    <_>
      <rects>
        <_>
          16 0 8 20 -1.</_>
        <_>
          20 0 4 20 2.</_></rects>
      <tilted>0</tilted></_></features></cascade>
</opencv_storage>
