<?xml version="1.0"?>
<opencv_storage>
<cascade>
  <stageType>BOOST</stageType>
  <featureType>HAAR</featureType>
  <height>24</height>
  <width>24</width>
  <stageParams>
    <boostType>GAB</boostType>
    <minHitRate>9.9500000476837158e-01</minHitRate>
    <maxFalseAlarm>5.0000000000000000e-01</maxFalseAlarm>
    <weightTrimRate>9.4999999999999996e-01</weightTrimRate>
    <maxDepth>1</maxDepth>
    <maxWeakCount>100</maxWeakCount></stageParams>
  <featureParams>
    <maxCatCount>0</maxCatCount>
    <featSize>1</featSize>
    <mode>BASIC</mode></featureParams>
  <stageNum>7</stageNum>
  <stages>
    <!-- stage 0 -->
    <_>
      <maxWeakCount>2</maxWeakCount>
      <stageThreshold>-2.3464906960725784e-02</stageThreshold>
      <weakClassifiers>
        <_>
          <internalNodes>
            0 -1 1 1.5535491704940796e-01</internalNodes>
          <leafValues>
            -9.7959184646606445e-01 9.4117647409439087e-01</leafValues></_>
        <_>
          <internalNodes>
            0 -1 7 -2.8377322480082512e-02</internalNodes>
          <leafValues>
            9.6360075473785400e-01 -9.6464139223098755e-01</leafValues></_></weakClassifiers></_>
    <!-- stage 1 -->
    <_>
      <maxWeakCount>1</maxWeakCount>
      <stageThreshold>7.6991152763366699e-01</stageThreshold>
      <weakClassifiers>
        <_>
          <internalNodes>
            0 -1 0 5.4498799145221710e-02</internalNodes>
          <leafValues>
            -1. 7.6991152763366699e-01</leafValues></_></weakClassifiers></_>
    <!-- stage 2 -->
    <_>
      <maxWeakCount>1</maxWeakCount>
      <stageThreshold>7.5438594818115234e-01</stageThreshold>
      <weakClassifiers>
        <_>
          <internalNodes>
            0 -1 2 -1.0890991427004337e-02</internalNodes>
          <leafValues>
            7.5438594818115234e-01 -1.</leafValues></_></weakClassifiers></_>
    <!-- stage 3 -->
    <_>
      <maxWeakCount>2</maxWeakCount>
      <stageThreshold>-9.6154473721981049e-02</stageThreshold>
      <weakClassifiers>
        <_>
          <internalNodes>
            0 -1 10 -3.0992019921541214e-02</internalNodes>
          <leafValues>
            8.1132078170776367e-01 -9.1489362716674805e-01</leafValues></_>
        <_>
          <internalNodes>
            0 -1 4 4.4530194252729416e-02</internalNodes>
          <leafValues>
            -9.0747523307800293e-01 8.6542218923568726e-01</leafValues></_></weakClassifiers></_>
    <!-- stage 4 -->
    <_>
      <maxWeakCount>2</maxWeakCount>
      <stageThreshold>1.0243489593267441e-01</stageThreshold>
      <weakClassifiers>
        <_>
          <internalNodes>
            0 -1 11 -3.1296666711568832e-02</internalNodes>
          <leafValues>
            9.1666668653488159e-01 -8.4615385532379150e-01</leafValues></_>
        <_>
          <internalNodes>
            0 -1 3 6.0642085969448090e-02</internalNodes>
          <leafValues>
            -8.1423175334930420e-01 9.8306196928024292e-01</leafValues></_></weakClassifiers></_>
    <!-- stage 5 -->
    <_>
      <maxWeakCount>2</maxWeakCount>
      <stageThreshold>1.9589932635426521e-03</stageThreshold>
      <weakClassifiers>
        <_>
          <internalNodes>
            0 -1 6 8.4660112857818604e-02</internalNodes>
          <leafValues>
            -8.6915886402130127e-01 1.</leafValues></_>
        <_>
          <internalNodes>
            0 -1 9 -2.7639875188469887e-02</internalNodes>
          <leafValues>
            8.7111788988113403e-01 -8.9175575971603394e-01</leafValues></_></weakClassifiers></_>
    <!-- stage 6 -->
    <_>
      <maxWeakCount>2</maxWeakCount>
      <stageThreshold>7.6923079788684845e-02</stageThreshold>
      <weakClassifiers>
        <_>
          <internalNodes>
            0 -1 5 2.3354031145572662e-03</internalNodes>
          <leafValues>
            -9.2307692766189575e-01 1.</leafValues></_>
        <_>
          <internalNodes>
            0 -1 8 1.3358370633795857e-03</internalNodes>
          <leafValues>
            1. -8.1511968374252319e-01</leafValues></_></weakClassifiers></_></stages>
  <features>
    <_>
      <rects>
        <_>
          0 1 6 22 -1.</_>
        <_>
          3 1 3 22 2.</_></rects>
      <tilted>0</tilted></_>
    <_>
      <rects>
        <_>
          0 5 24 6 -1.</_>
        <_>
          8 5 8 6 3.</_></rects>
      <tilted>0</tilted></_>
    <_>
      <rects>
        <_>
          1 14 5 6 -1.</_>
        <_>
          1 17 5 3 2.</_></rects>
      <tilted>0</tilted></_>
    <_>
      <rects>
        <_>
          3 3 11 9 -1.</_>
        <_>
          3 6 11 3 3.</_></rects>
      <tilted>0</tilted></_>
    <_>
      <rects>
        <_>
          4 0 5 10 -1.</_>
        <_>
          4 5 5 5 2.</_></rects>
      <tilted>0</tilted></_>
    <_>
      <rects>
        <_>
          5 2 1 6 -1.</_>
        <_>
          5 5 1 3 2.</_></rects>
      <tilted>0</tilted></_>
    <_>
      <rects>
        <_>
          6 0 10 8 -1.</_>
        <_>
          6 4 10 4 2.</_></rects>
      <tilted>0</tilted></_>
    <_>
      <rects>
        <_>
          12 6 12 2 -1.</_>
        <_>
          18 6 6 2 2.</_></rects>
      <tilted>0</tilted></_>
    <_>
      <rects>
        <_>
          13 7 8 4 -1.</_>
        <_>
          13 9 8 2 2.</_></rects>
      <tilted>0</tilted></_>
    <_>
      <rects>
        <_>
          17 0 6 10 -1.</_>
        <_>
          17 0 3 5 2.</_>
        <_>
          20 5 3 5 2.</_></rects>
      <tilted>0</tilted></_>
    <_>
      <rects>
        <_>
          17 4 6 7 -1.</_>
        <_>
          20 4 3 7 2.</_></rects>
      <tilted>0</tilted></_>
    <_>
      <rects>
        <_>
          17 12 4 12 -1.</_>
        <_>
          17 18 4 6 2.</_></rects>
      <tilted>0</tilted></_></features></cascade>
</opencv_storage>
